/*!
 * The following copyright notice may not be removed under any circumstances.
 * 
 * Copyright:
 * Copyright \(c\) Manfred Klein - The Title comments our modern times ... , 2004.
 * All rights reserved.
 */
Cufon.registerFont({"w":1055,"face":{"font-family":"CrazyCrazy","font-weight":500,"font-stretch":"normal","units-per-em":"1000","panose-1":"2 0 6 3 9 0 0 2 0 4","ascent":"800","descent":"-200","x-height":"6","bbox":"-116 -853 1438 1352","underline-thickness":"20","underline-position":"-123","unicode-range":"U+0020-U+2122"},"glyphs":{" ":{"w":244},"!":{"d":"108,-727v-57,0,-51,70,-47,123r31,394r28,0r44,-422v7,-49,-9,-95,-56,-95xm50,-50v0,47,61,75,96,40v34,-34,8,-95,-40,-95v-29,0,-56,26,-56,55","w":215},"\"":{"d":"268,-720r-77,0r-20,230r77,0xm147,-720r-77,0r-20,230r77,0","w":318},"#":{"d":"542,-496r-116,0r27,-126r-50,0r-26,126r-105,0r28,-126r-51,0r-26,126r-116,0r-10,50r116,0r-37,172r-115,0r-11,50r116,0r-31,145r50,0r31,-145r104,0r-31,145r50,0r31,-145r115,0r10,-50r-116,0r38,-172r115,0xm366,-446r-36,172r-105,0r38,-172r103,0","w":592},"$":{"d":"77,11v9,-19,13,-33,39,-33v49,1,82,25,129,29r0,81r39,1r1,-81v95,-1,160,-45,193,-111v21,-40,23,-102,6,-147v-32,-85,-109,-129,-185,-170v-5,-4,-9,-8,-11,-11r2,-251v86,22,133,90,145,185r16,0r0,-165r-68,-29r-54,-21v-18,-7,-31,-11,-39,-12r1,-84r-39,0r-1,79v-120,10,-201,63,-201,191v0,96,65,145,128,184v23,14,47,25,70,35r-2,285v-109,-7,-151,-97,-170,-193r-18,0r0,237xm249,-453v-61,-24,-135,-84,-100,-169v15,-37,52,-63,102,-65xm364,-235v35,38,44,129,-2,167v-23,18,-47,31,-77,34r2,-260v26,18,56,36,77,59","w":546},"%":{"d":"643,-722r-35,-21r-456,736r34,20xm286,-369v73,-37,119,-138,84,-243v-22,-65,-70,-118,-154,-118v-85,0,-132,53,-154,118v-35,104,12,207,85,243v40,20,99,20,139,0xm639,-2v73,-36,119,-137,85,-242v-22,-66,-70,-120,-156,-120v-84,0,-132,55,-154,120v-35,104,13,206,86,242v41,20,99,20,139,0xm213,-382v-91,0,-93,-119,-85,-212v5,-57,26,-108,90,-108v76,0,89,85,88,160v-1,80,-12,160,-93,160xm573,-334v91,0,93,119,85,212v-5,57,-27,108,-91,108v-75,0,-89,-83,-89,-160v0,-81,14,-160,95,-160","w":785},"&":{"d":"221,9v99,0,166,-49,217,-102v48,43,88,101,175,101v89,0,131,-67,145,-147r-9,-2v-9,54,-77,88,-137,63v-45,-19,-80,-53,-105,-91r127,-224v17,-27,-2,-58,-33,-57v-24,1,-41,16,-41,46v0,86,-38,153,-79,205v-44,-73,-91,-142,-127,-223v57,-26,112,-64,139,-120v9,-19,14,-39,14,-61v0,-78,-51,-129,-129,-129v-82,0,-130,47,-154,108v-28,72,3,159,24,219v-68,46,-143,88,-180,164v-21,42,-24,105,-4,150v26,58,77,100,157,100xm378,-698v83,0,85,132,40,186v-21,25,-46,46,-78,59v-16,-43,-35,-87,-35,-143v1,-56,17,-102,73,-102xm412,-120v-37,41,-120,89,-188,52v-55,-29,-99,-111,-69,-190v20,-52,64,-85,109,-113v42,89,91,172,148,251","w":808},"'":{"d":"148,-720r-78,0r-20,230r77,0","w":198},"(":{"d":"311,-806v-167,80,-261,238,-261,478v0,231,101,383,261,462r1,-15v-131,-78,-166,-249,-166,-455v0,-206,35,-377,166,-455","w":362},")":{"d":"51,134v167,-80,261,-238,261,-478v0,-231,-101,-383,-261,-462r-1,15v130,79,166,248,166,455v0,207,-36,376,-166,455","w":362},"*":{"d":"334,-434v31,24,77,20,77,-19v0,-36,-51,-52,-82,-63v-30,-10,-53,-13,-82,-19v50,-9,113,-26,145,-55v11,-10,17,-20,17,-33v0,-36,-50,-36,-79,-14v-34,26,-67,55,-93,86v13,-42,29,-89,29,-139v0,-22,-12,-49,-37,-47v-55,5,-30,94,-19,134r14,52v-26,-31,-59,-62,-95,-86v-16,-11,-31,-16,-44,-16v-17,0,-36,13,-33,30v11,64,99,73,162,88v-49,8,-101,22,-138,45v-17,10,-26,22,-26,37v-1,18,18,38,36,35v58,-10,101,-69,138,-104v-1,24,-10,34,-16,58v-10,41,-37,129,23,129v59,0,31,-90,21,-129v-5,-20,-14,-35,-15,-58r15,16v21,24,55,51,82,72","w":461},"+":{"d":"533,-286r0,-81r-202,0r0,-200r-81,0r0,201r-200,0r0,80r201,0r0,200r80,0r0,-200r202,0","w":583},",":{"d":"71,154v66,-27,126,-69,126,-158v0,-56,-30,-101,-86,-104v-33,-2,-61,25,-61,59v0,30,25,51,55,51v11,0,20,-8,30,-8v17,0,21,22,21,36v0,58,-47,94,-87,115","w":247},"-":{"d":"295,-267r0,-82r-245,0r0,82r245,0","w":345},".":{"d":"107,7v30,0,56,-28,56,-58v0,-30,-27,-57,-57,-57v-31,0,-56,27,-56,58v0,30,27,57,57,57","w":213},"\/":{"d":"543,-715r-31,-20r-462,728r32,21","w":593},"0":{"d":"350,-16v90,-58,147,-192,106,-333v-25,-87,-83,-161,-193,-161v-114,0,-173,81,-199,172v-40,138,10,277,104,326v52,27,132,28,182,-4xm318,-450v82,81,105,319,12,404v-26,24,-78,27,-110,8v-67,-42,-90,-137,-90,-242v0,-71,18,-143,58,-178v34,-30,99,-23,130,8","w":520},"1":{"d":"152,-77v-1,53,-48,64,-102,63r0,14r290,0r0,-14v-54,1,-102,-9,-102,-63r0,-422r61,1v11,0,14,0,8,0r-256,1r0,15v53,0,102,8,101,62r0,343","w":390},"2":{"d":"114,-518r-2,73v60,3,107,29,128,71v37,77,-15,166,-54,212v-36,43,-87,83,-136,109r0,53r389,0r48,-122r-9,-3v-23,41,-61,56,-118,56r-204,0v99,-51,178,-132,178,-277v0,-89,-74,-135,-145,-160v-26,-8,-51,-12,-75,-12","w":537},"3":{"d":"0,127v4,52,61,66,114,66v116,0,199,-61,242,-141v15,-29,23,-60,23,-95v0,-93,-49,-154,-125,-176v52,-29,101,-77,101,-152v0,-75,-63,-111,-124,-131v-22,-6,-43,-9,-64,-9v0,29,-4,31,-7,64v54,1,88,30,106,69v6,14,9,29,9,45v-5,97,-75,142,-158,161r0,7v114,3,186,61,186,175v0,62,-30,106,-73,128v-15,8,-32,11,-51,11v-66,2,-84,-48,-144,-51v-15,0,-37,12,-35,29","w":479},"4":{"d":"495,0r0,-65r-89,0r0,-446r-45,0r-311,446r0,65r269,0r0,180r83,0r0,-180r93,0xm393,-65r-226,0r226,-330r0,330","w":545},"5":{"d":"50,120v4,54,59,72,114,72v116,0,200,-65,244,-145v32,-58,32,-134,0,-193v-46,-86,-131,-149,-245,-164r23,-109r305,0r-40,-78r-303,0r-71,270v109,9,207,44,257,115v27,39,36,101,17,152v-23,61,-93,115,-175,87v-32,-11,-48,-42,-84,-42v-20,0,-43,13,-42,35","w":541},"6":{"d":"150,-365v47,-172,146,-291,299,-362r-3,-12v-169,49,-300,157,-365,313v-46,109,-37,262,21,348v32,48,78,93,154,93v103,0,158,-68,187,-147v28,-78,8,-175,-30,-224v-38,-50,-123,-81,-201,-48v-24,9,-45,22,-62,39xm364,-237v13,102,4,221,-96,221v-55,0,-83,-42,-102,-82v-30,-64,-36,-161,-19,-240v34,-32,118,-60,162,-18v29,28,48,70,55,119","w":507},"7":{"d":"60,-329v18,-42,41,-88,98,-88r226,0r-197,604r52,15r228,-699r-354,0r-63,164","w":517},"8":{"d":"412,-86v20,-40,21,-102,3,-144v-27,-68,-81,-112,-130,-159v50,-26,98,-70,124,-123v32,-65,-4,-139,-41,-172v-42,-38,-131,-61,-198,-33v-63,25,-104,79,-104,165v0,95,77,141,128,195v-64,52,-144,93,-144,205v0,84,50,133,114,155v74,25,165,3,206,-35v17,-16,32,-33,42,-54xm148,-540v-47,-93,47,-199,146,-150v38,19,60,65,58,120v-2,84,-35,121,-87,161v-43,-35,-90,-78,-117,-131xm248,-16v-84,0,-125,-57,-125,-140v0,-92,39,-132,93,-179v11,11,26,24,42,39v31,29,63,63,84,100v10,18,16,36,16,54v-2,74,-36,126,-110,126","w":478},"9":{"d":"353,58v72,-90,132,-239,93,-392v-16,-65,-52,-119,-102,-152v-47,-31,-122,-32,-174,-6v-86,43,-145,158,-110,284v20,73,71,129,162,129v57,0,100,-24,135,-51v-42,164,-134,277,-304,312r-2,9v143,11,237,-53,302,-133xm142,-260v-12,-102,-4,-221,98,-221v80,0,107,78,123,148v13,61,3,116,-3,175v-37,31,-119,57,-164,16v-30,-27,-47,-69,-54,-118","w":508},":":{"d":"107,-388v32,0,57,-27,57,-58v0,-30,-27,-58,-57,-58v-30,0,-57,27,-57,57v0,31,26,59,57,59xm52,-50v0,47,61,76,96,40v34,-35,7,-98,-41,-98v-31,0,-55,28,-55,58","w":215},";":{"d":"107,-389v30,0,56,-28,56,-58v0,-30,-27,-57,-57,-57v-31,0,-56,28,-56,58v0,30,27,57,57,57xm71,154v66,-27,126,-69,126,-158v0,-56,-30,-101,-86,-104v-33,-2,-61,25,-61,59v0,30,25,51,55,51v11,0,20,-8,30,-8v17,0,21,22,21,36v0,58,-47,94,-87,115","w":247},"<":{},"=":{},">":{},"?":{"d":"236,-193v2,-171,150,-202,150,-372v0,-77,-41,-128,-98,-151v-92,-36,-192,10,-224,76v-23,47,-20,134,41,136v31,1,49,-38,34,-66v-12,-23,-39,-52,-19,-84v14,-24,40,-44,75,-44v77,0,98,74,98,150v0,141,-107,203,-91,355r34,0xm155,-51v0,48,64,78,100,41v35,-35,7,-99,-42,-99v-31,0,-58,28,-58,58","w":436},"@":{"d":"447,-81v-7,92,112,103,169,55v84,-71,134,-244,80,-376v-44,-108,-138,-185,-285,-185v-176,0,-281,105,-334,235v-18,46,-27,95,-27,146r30,0v1,0,0,-2,-1,-2v-1,0,-2,0,-1,0r32,-1v3,-150,75,-251,180,-302v65,-32,159,-36,228,-7v103,44,171,158,142,307v-10,54,-32,111,-64,145v-16,18,-35,27,-57,27v-35,0,-46,-33,-46,-64v0,-111,38,-232,55,-331r-49,-1r-9,57v-17,-35,-43,-62,-91,-63v-69,0,-110,50,-137,97v-42,72,-65,207,-15,285v19,30,50,57,99,55v53,-2,86,-35,101,-77xm402,-396v84,2,72,110,56,183v-13,59,-33,120,-71,153v-12,10,-25,16,-40,16v-58,-1,-70,-56,-70,-113v0,-80,24,-167,66,-212v16,-18,36,-27,59,-27","w":769},"A":{"d":"249,-14v-38,1,-75,-2,-77,-37v15,-67,48,-127,73,-186r264,0r96,237r119,0r-306,-730r-7,1r-291,665v-14,26,-30,49,-70,49r0,15r199,0r0,-14xm495,-274r-234,0r119,-276","w":774},"B":{"d":"50,-706v42,2,94,4,94,47r0,659v142,-4,302,18,396,-42v48,-30,87,-77,85,-155v-3,-102,-71,-152,-155,-176v91,-19,160,-127,114,-229v-37,-83,-128,-118,-255,-118r-279,0r0,14xm327,-393v-27,0,-49,-4,-73,-9r0,-280v118,-21,222,25,225,143v1,92,-61,146,-152,146xm252,-348v126,-25,243,25,243,153v0,93,-65,158,-158,157v-38,-1,-72,-12,-85,-39r0,-271","w":675},"C":{"d":"684,-167v-54,75,-132,134,-249,134v-145,0,-219,-89,-251,-205v-34,-121,-9,-270,44,-348v40,-59,100,-109,197,-108v104,1,173,56,213,125v14,25,24,53,28,83r10,-2r0,-150r-10,-1v-4,6,-7,14,-14,17v-8,-1,-16,-7,-24,-18v-41,-51,-104,-90,-206,-88v-174,4,-287,95,-343,220v-38,86,-38,198,-3,288v35,90,99,160,184,199v96,45,223,39,309,-15v50,-31,91,-72,123,-124","w":742},"D":{"d":"754,-206v41,-87,44,-237,0,-323v-64,-123,-195,-191,-376,-191r-328,0r0,15v44,0,80,3,92,35v4,11,6,25,6,44r0,626v135,-3,274,10,382,-22v104,-31,181,-91,224,-184xm254,-70r2,-595v73,-29,166,-26,234,5v105,47,174,151,173,297v-2,150,-63,253,-169,301v-52,24,-122,31,-193,22v-21,-3,-46,-8,-47,-30","w":837},"E":{"d":"441,-680v85,0,142,31,143,116r10,0r0,-156r-544,0r0,15v63,-2,96,14,96,79r0,626r457,0r56,-173r-12,-4v-28,66,-51,117,-125,131v-67,12,-164,5,-242,7v-15,1,-27,-17,-27,-31r0,-294r162,0v78,-1,115,28,108,107r14,0r0,-249r-13,0v2,79,-40,106,-118,106r-153,0r0,-280r188,0","w":709},"F":{"d":"465,-680v86,0,149,30,150,116r12,0r0,-156r-577,0r0,14v64,-1,91,14,91,80r0,626r199,0r0,-14v-63,1,-91,-15,-91,-80r0,-272r173,0v73,-1,104,34,98,109r12,0r0,-148r-117,3r-166,0r0,-278r216,0","w":677},"G":{"d":"717,-290v0,-55,29,-82,85,-80r0,-14r-193,0r0,302v-38,31,-88,53,-150,53v-152,0,-232,-94,-270,-213v-40,-126,-7,-276,55,-350v46,-55,110,-101,207,-101v133,0,218,88,254,191r9,-1r-16,-220r-10,0v-2,19,-19,42,-40,42v-25,0,-53,-19,-73,-26v-87,-31,-205,-31,-290,6v-94,41,-165,112,-205,207v-39,91,-42,214,2,300v61,121,182,203,357,203v110,0,203,-28,278,-73r0,-226","w":852},"H":{"d":"685,-632v-2,-61,38,-75,97,-73r0,-15r-299,0r0,15v52,-1,96,8,95,62r0,269r-329,0r0,-347r-199,1r0,14v64,-1,92,15,92,80r0,532v2,61,-30,81,-91,79r0,15r199,0r0,-334r328,0r0,334r203,0r0,-14v-59,3,-96,-16,-96,-73r0,-545","w":832},"I":{"d":"258,-626v-3,-66,38,-81,102,-79r0,-15r-310,0r0,15v45,0,82,3,94,36v4,11,6,25,6,43r0,626r108,0r0,-626","w":410},"J":{"d":"15,-64v4,55,59,76,114,76v96,0,145,-61,169,-136v8,-26,11,-53,11,-80r0,-516r-108,0r0,607v-1,37,0,86,-36,86v-23,0,-29,-28,-39,-43v-12,-19,-26,-42,-58,-42v-28,0,-55,18,-53,48","w":394},"K":{"d":"147,-87v2,60,-39,73,-97,72r0,15r205,0r0,-322r22,-16r311,338r207,0r0,-14v-73,-1,-112,-41,-149,-80r-291,-306v95,-78,159,-193,254,-271v32,-27,53,-33,105,-34r0,-15r-246,0r0,15v26,-1,64,-3,61,25v-3,36,-36,69,-61,98v-63,75,-140,144,-213,210r0,-347r-108,-3r0,635","w":810},"L":{"d":"50,-705v61,-2,95,16,95,79r0,626r444,0r58,-187r-11,-3v-32,83,-80,150,-189,150r-137,0v-47,-1,-57,-12,-57,-59r0,-622r-203,1r0,15","w":669},"M":{"d":"148,-88v2,60,-37,75,-96,73r0,15r141,0r0,-598r263,598r13,0r265,-601r0,601r206,0r0,-14v-54,1,-98,-10,-98,-63r0,-644r-100,1r-242,552r-243,-552r-207,0r0,15v58,-1,98,13,98,72r0,545","w":990},"N":{"d":"690,-626v-1,-64,41,-83,106,-80r0,-14r-148,-1r1,529r-436,-528r-198,0r0,12v65,-2,100,37,129,75r0,633r40,0r0,-590r497,605r9,0r0,-641","w":817},"O":{"d":"704,-215v33,-86,34,-194,2,-282v-47,-129,-145,-228,-314,-228v-170,0,-270,96,-318,223v-32,86,-32,194,0,281v31,88,91,157,172,197v80,39,196,39,278,2v84,-38,147,-105,180,-193xm495,-656v149,109,145,488,-1,594v-55,40,-157,42,-211,0v-96,-75,-132,-244,-103,-407v15,-79,50,-145,104,-187v54,-42,156,-40,211,0","w":779},"P":{"d":"231,-335v33,15,80,13,124,13v100,0,170,-44,205,-113v26,-51,23,-138,-5,-183v-44,-72,-134,-102,-247,-102r-279,0r0,15v52,0,94,9,94,62r0,566v0,52,-41,65,-95,63r0,14r203,0r0,-335xm303,-681v100,-2,152,68,152,166v0,94,-48,156,-141,156v-32,0,-59,3,-83,-8r0,-303v21,-8,46,-11,72,-11","w":621},"Q":{"d":"495,-656v149,109,145,488,-1,594v-55,40,-157,42,-211,0v-96,-75,-132,-244,-103,-407v15,-79,50,-145,104,-187v54,-42,156,-40,211,0xm716,80v0,-42,-41,-69,-81,-52v-17,7,-28,23,-26,48v2,16,-3,30,-19,30v-67,0,-68,-58,-78,-113v99,-31,164,-126,198,-227v47,-139,-1,-302,-72,-380v-55,-61,-135,-111,-246,-111v-170,0,-270,96,-318,223v-32,86,-32,194,0,281v31,88,91,158,172,197v64,32,148,39,227,19v11,87,55,163,153,163v49,0,90,-27,90,-78","w":779},"R":{"d":"143,-77v0,52,-40,65,-93,63r0,14r201,0r0,-340r64,0r217,288v28,39,53,68,120,66v32,0,64,-5,95,-14r0,-14v-67,0,-97,-38,-128,-79r-194,-257v94,-25,177,-70,177,-187v0,-137,-103,-183,-239,-183r-312,0r0,14v53,-2,92,11,92,63r0,566xm251,-671v36,-19,98,-23,139,-5v54,24,90,71,90,147v0,121,-105,159,-229,154r0,-296","w":762},"S":{"d":"57,-57v58,45,127,68,222,68v98,0,165,-47,199,-114v27,-53,21,-134,-8,-181v-67,-108,-221,-139,-304,-229v-18,-19,-27,-43,-27,-70v2,-68,48,-102,115,-102v114,0,166,84,181,188r16,0r0,-233r-19,0v-8,17,-18,34,-42,33v-54,-3,-94,-31,-152,-31v-90,0,-146,48,-174,114v-21,51,-17,122,12,164v69,101,219,132,294,226v17,21,26,47,26,77v-2,76,-54,113,-129,115v-118,3,-176,-73,-192,-175r-18,0r0,150","w":546},"T":{"d":"74,-555v-2,-91,56,-124,145,-125r98,0r0,680r108,0r0,-680r224,0r15,124r14,0r-11,-164r-596,0r-12,165r15,0","w":697},"U":{"d":"402,10v178,2,273,-95,273,-273r0,-457r-47,0r0,436v0,152,-58,248,-212,248v-133,0,-193,-74,-194,-204r0,-387v7,-41,13,-69,51,-75v11,-2,24,-3,41,-3r0,-15r-294,0r0,15v62,-2,95,17,95,79r0,387v3,172,115,247,287,249","w":755},"V":{"d":"549,-706v39,-1,76,1,78,37v0,16,-8,30,-12,43r-183,451r-116,-273v-38,-91,-79,-182,-122,-272r-168,0r0,15v62,-1,83,36,101,80r266,635r13,-3r259,-633v22,-49,38,-78,103,-79r0,-15r-219,0r0,14","w":785},"W":{"d":"211,-667v0,-35,35,-38,70,-38r0,-15r-261,0r0,15v58,-1,76,35,90,79r219,636r13,-2r158,-463r166,465r12,-2r222,-634v15,-40,28,-79,83,-79r0,-15r-193,0r0,15v38,-1,74,1,73,39v0,17,-7,28,-11,40r-150,432r-150,-432r-114,0r38,105r-108,317r-152,-438v-3,-9,-5,-17,-5,-25","w":1000},"X":{"d":"246,-15v-29,1,-67,4,-67,-26v17,-51,62,-106,94,-149r45,-60r49,-62r201,312r188,0r0,-14v-62,-6,-88,-41,-115,-83r-202,-305r171,-224v32,-39,60,-81,131,-80r0,-14r-129,-1r-144,203r-57,78r-183,-280r-196,0r0,15v74,-2,100,35,130,79r184,274r-197,258v-31,36,-56,81,-123,80r0,14r220,0r0,-15","w":781},"Y":{"d":"523,-705v35,0,74,-3,75,31v-42,111,-121,212,-181,310r-200,-357r-200,1r0,15v68,-1,92,37,118,79r193,317r0,309r108,0r0,-309r194,-317v27,-45,53,-80,124,-79r0,-15r-231,0r0,15","w":777},"Z":{"d":"637,-188v-20,104,-70,146,-186,146r-270,0r458,-678r-536,0r-1,41r380,-1r-459,680r590,0r36,-188r-12,0","w":688},"[":{"d":"198,145r0,-42r-60,0r0,-823r60,0r0,-42r-148,0r0,907r148,0","w":248},"\\":{"d":"543,-6r-462,-729r-31,21r463,728","w":593},"]":{"d":"198,145r0,-907r-148,0r0,42r61,0r0,823r-61,0r0,42r148,0","w":248},"^":{},"_":{},"a":{"d":"387,-57v5,23,19,50,42,56r122,0r0,-16v-32,-1,-61,8,-69,-19v-2,-8,-4,-19,-4,-35r0,-408v0,-3,-2,-6,-6,-7r-35,21v-19,9,-31,20,-55,9v-32,-15,-65,-30,-110,-30v-118,0,-179,79,-208,172v-29,91,-9,198,37,252v32,38,77,72,143,72v63,-1,109,-30,141,-67r2,0xm387,-316r-1,225v-15,17,-54,41,-84,41v-93,-3,-132,-76,-151,-153v-23,-96,-1,-199,59,-241v29,-20,80,-24,111,-4v40,24,66,71,66,132","w":571},"b":{"d":"392,-251v55,-16,107,-38,107,-107v0,-112,-134,-122,-247,-122r-202,0r0,18r79,0r0,445r-79,0r0,17r272,0v74,-1,143,-19,177,-63v13,-16,20,-37,20,-62v-2,-80,-63,-106,-127,-124r0,-2xm226,-429v-2,-21,19,-20,36,-21v74,1,132,23,133,98r-1,0v-1,72,-61,92,-132,92v-17,0,-36,0,-36,-21r0,-148xm268,-230v81,0,141,24,141,106v1,80,-63,95,-142,94v-28,-1,-41,-4,-41,-33r0,-138v-1,-28,17,-29,42,-29","w":569},"c":{"d":"237,3v87,16,189,4,229,-49v11,-15,18,-32,18,-53v2,-52,-41,-79,-90,-79v-78,0,-119,56,-153,105v-75,-48,-139,-149,-107,-271v16,-62,58,-110,136,-112v61,-2,65,44,81,86v7,19,20,30,49,30v49,0,62,-69,30,-98v-51,-46,-170,-64,-244,-28v-80,38,-136,115,-136,229v0,112,61,201,151,232r-99,159r24,13xm399,-148v30,0,58,16,57,48v-2,52,-53,68,-104,68v-29,0,-56,-7,-82,-22v30,-41,62,-94,129,-94","w":534},"d":{"d":"549,100v52,0,109,1,109,-52v0,-40,-52,-62,-78,-36v-13,13,-22,32,-33,47v-5,7,-13,11,-24,11v-35,0,-36,-38,-36,-72r0,-702v0,-10,0,-22,-13,-20v-46,9,-109,35,-152,48r0,16v15,-2,29,-4,45,-4v27,0,28,26,27,54r0,172v-28,-27,-62,-48,-112,-48v-119,0,-184,76,-216,168v-32,91,-11,204,36,258v33,38,81,70,149,70v63,-1,110,-28,142,-66r2,2v-1,77,11,129,71,145v20,6,48,9,83,9xm150,-186v-24,-126,3,-270,132,-270v50,0,85,28,103,63v7,13,10,26,10,41r-1,270v-31,41,-122,50,-170,18v-39,-26,-64,-69,-74,-122","w":564},"e":{"d":"185,-260v-73,8,-137,52,-135,133v3,103,93,135,195,135v104,0,189,-48,233,-116v5,-7,7,-14,7,-19v-3,-16,-11,-9,-25,3v-55,47,-184,95,-272,42v-25,-16,-46,-40,-46,-79v2,-68,68,-80,138,-80v8,0,17,-5,17,-14v0,-11,-13,-14,-22,-14v-64,-1,-105,-21,-105,-89v0,-70,69,-133,136,-96v39,21,36,84,68,112v31,27,85,-3,81,-44v-7,-83,-104,-102,-189,-102v-75,0,-144,21,-180,64v-21,25,-28,72,-8,102v21,33,62,52,107,60r0,2","w":535},"f":{"d":"292,-619v27,29,84,4,80,-37v-5,-51,-56,-68,-108,-68v-79,0,-128,45,-152,104v-16,39,-11,88,-12,140r-72,0r0,36r72,0r0,500v0,78,19,136,98,134v61,-2,94,-43,124,-78r-16,-12v-16,15,-37,36,-65,36v-37,1,-48,-26,-49,-60r0,-520r108,0r0,-36r-108,0r0,-150v1,-30,11,-58,41,-58v38,0,39,47,59,69","w":300},"g":{"d":"156,80v-25,-29,-83,-8,-80,31v7,71,100,79,175,79v145,0,233,-78,233,-224r0,-452v-18,10,-41,30,-64,30v-50,0,-81,-30,-133,-30v-119,3,-188,71,-221,162v-30,83,-16,198,26,254v28,39,70,70,136,70v76,-1,123,-36,162,-80r2,0r0,71v0,97,-33,162,-130,163v-63,1,-78,-42,-106,-74xm288,-456v66,0,104,42,104,107r0,223v-21,53,-112,67,-167,38v-83,-44,-99,-210,-47,-301v21,-36,55,-67,110,-67","w":534},"h":{"d":"317,-426v65,-1,84,42,84,103r0,231v2,53,-15,77,-69,74r0,18r229,0r0,-18v-54,3,-69,-21,-69,-74r0,-236v-2,-92,-40,-158,-133,-158v-60,0,-117,35,-151,66v4,-118,-28,-269,103,-274v59,-2,65,53,93,84v9,10,21,16,38,16v50,0,57,-64,28,-90v-30,-27,-85,-40,-140,-40v-130,0,-214,65,-214,196r0,436v0,36,-4,62,-31,70v-9,3,-20,4,-35,4r0,18r158,0r0,-382v24,-24,63,-42,109,-44","w":611},"i":{"d":"223,-460v0,-10,0,-21,-12,-20r-152,0r0,18v31,1,60,-9,69,16v2,7,4,17,4,32r0,397r-73,0r0,17r245,0r0,-17r-81,0r0,-443","w":345},"j":{"d":"162,-608v31,0,58,-27,58,-58v0,-31,-27,-58,-58,-58v-31,0,-58,27,-58,58v0,31,27,58,58,58xm-23,235v102,20,194,-15,227,-91r116,36r14,-32r-119,-41v4,-18,5,-35,5,-55r0,-518v0,-10,0,-22,-12,-20v-46,9,-110,34,-152,48r0,16v14,-3,28,-4,44,-4v27,0,28,28,28,54r0,456v-43,-13,-93,-29,-146,-28v-56,1,-98,27,-98,83v0,59,43,86,93,96xm-86,139v0,-63,84,-58,139,-44v24,6,48,13,71,22v-13,53,-44,87,-106,87v-49,0,-104,-16,-104,-65","w":316},"k":{"d":"374,-38v-1,21,-25,20,-47,20r0,18r227,0r0,-18v-39,-3,-68,-25,-88,-50r-181,-228v73,-69,118,-154,245,-166r0,-18r-223,0r0,18v26,0,55,-1,57,23v-20,50,-68,88,-106,123r-47,44r0,-310v0,-61,34,-106,97,-106v63,0,72,48,100,81v8,10,21,15,38,15v43,1,57,-63,26,-90v-31,-27,-85,-41,-139,-42v-129,0,-214,75,-214,206r0,426v0,41,-7,66,-40,72v-10,2,-23,2,-38,2r0,18r243,0r0,-18v-39,0,-65,-6,-70,-38v-9,-57,-1,-131,-3,-194v9,1,11,10,21,22r32,38r72,92v15,20,32,41,38,60","w":613},"l":{"d":"542,-119r-9,-3v-33,60,-84,92,-169,92r-109,-1v-33,-2,-35,-24,-35,-61r0,-370r83,0r0,-18r-253,0r0,18r73,0r0,445r-73,0r0,17r441,0v9,-19,18,-39,26,-59","w":592},"m":{"d":"486,103v2,54,60,67,114,67v88,0,141,-54,169,-118v9,-23,14,-47,14,-72r0,-305v-1,-96,-36,-161,-132,-161v-74,0,-127,45,-169,82v-17,-52,-55,-82,-118,-82v-62,0,-116,37,-150,70v0,-21,8,-65,-12,-70v-45,11,-109,35,-152,48r0,16v15,-2,29,-4,45,-4v27,0,28,26,27,54r0,280v0,37,-3,62,-31,70v-9,3,-20,4,-35,4r0,18r227,0r0,-18v-53,3,-69,-21,-69,-74r0,-290v20,-22,72,-44,111,-44v62,-2,82,41,82,98r0,236v0,39,-6,64,-37,70v-10,2,-21,4,-36,4r0,18r229,0r0,-18v-51,2,-65,-22,-65,-74r0,-290v20,-22,72,-44,111,-44v62,-2,82,41,82,98r0,370v-2,45,-10,94,-53,98v-50,-7,-52,-77,-108,-80v-26,0,-45,17,-44,43","w":833},"n":{"d":"204,83v2,53,58,67,111,67v88,0,141,-54,169,-118v9,-23,14,-47,14,-72r0,-288v-2,-92,-40,-158,-133,-158v-60,0,-117,35,-151,66v0,-20,8,-62,-12,-66v-46,11,-109,35,-152,48r0,16v14,-3,28,-4,44,-4v27,0,28,28,28,54r0,280v0,37,-3,62,-31,70v-9,3,-20,4,-35,4r0,18r226,0r0,-18v-53,3,-68,-21,-68,-74r0,-290v24,-25,62,-42,108,-44v65,-1,84,42,84,103r0,345v-2,44,-9,98,-52,98v-24,0,-36,-25,-50,-40v-14,-17,-29,-40,-59,-40v-25,-1,-42,19,-41,43","w":548},"o":{"d":"524,-142v25,-59,25,-136,0,-195v-37,-85,-111,-149,-228,-149v-117,0,-192,64,-228,149v-25,59,-24,137,1,195v37,85,110,148,228,148v116,0,190,-63,227,-148xm297,-466v136,0,139,171,125,304v-8,78,-39,148,-126,148v-136,0,-138,-168,-126,-303v5,-54,27,-99,60,-127v17,-14,39,-22,67,-22xm238,-250v0,49,64,77,100,41v35,-35,8,-99,-42,-99v-31,0,-58,27,-58,58","w":593},"p":{"d":"251,-36v27,27,63,48,112,48v119,0,185,-76,217,-168v31,-91,11,-203,-36,-258v-33,-38,-81,-70,-149,-70v-63,1,-110,28,-142,66r-2,-2v1,-75,-9,-123,-71,-136v-70,-14,-192,-15,-192,67v0,40,54,64,78,33v14,-18,22,-44,33,-64v5,-10,13,-14,23,-14v35,0,37,37,37,72r0,642v0,10,0,22,12,20v45,-10,110,-33,152,-48r0,-16v-14,3,-28,4,-44,4v-27,0,-28,-28,-28,-54r0,-122xm251,-392v31,-41,121,-50,169,-18v56,37,83,109,83,198v0,105,-34,194,-139,194v-50,0,-85,-28,-103,-63v-7,-13,-10,-26,-10,-41r0,-270","w":658},"q":{"d":"584,-509v26,29,84,4,81,-37v-6,-79,-135,-72,-203,-61v-67,11,-71,67,-70,148v-54,-33,-145,-35,-204,-4v-83,44,-138,129,-138,251v0,94,44,160,108,194v23,12,49,18,78,18v70,0,118,-43,157,-80r0,272r164,-2r0,-18v-40,0,-64,-6,-70,-38v-2,-10,-3,-21,-3,-36r0,-608v2,-32,9,-68,42,-68v37,0,38,47,58,69xm294,-456v68,2,99,46,99,114r-1,222v-20,27,-55,47,-98,48v-111,0,-146,-83,-146,-193v0,-79,30,-141,80,-173v18,-12,41,-18,66,-18","w":551},"r":{"d":"363,-382v24,1,43,-24,43,-47v0,-34,-32,-59,-64,-57v-63,3,-99,51,-126,92r-2,0r2,-51v0,-16,-1,-40,-14,-41v-45,10,-110,34,-152,48r0,16v14,-3,28,-4,44,-4v27,0,28,28,28,54r0,234v-1,80,12,128,76,141v71,14,187,12,190,-69v2,-42,-59,-58,-82,-30v-14,17,-22,43,-33,62v-5,9,-13,14,-24,14v-30,0,-35,-27,-35,-56r0,-270v14,-31,30,-74,71,-74v34,0,43,37,78,38","w":456},"s":{"d":"86,-16v64,8,136,42,204,17v51,-19,91,-57,91,-125v0,-151,-159,-157,-241,-228v-13,-12,-20,-27,-20,-44v2,-46,39,-66,85,-66v82,0,114,58,128,128r18,0r-9,-130v-65,-3,-131,-38,-198,-14v-51,18,-94,52,-94,118v0,138,170,133,236,214v13,14,19,32,19,52v0,74,-85,96,-145,68v-48,-23,-77,-69,-86,-130r-18,0r0,180v1,86,33,126,121,126v54,0,104,-21,108,-76v3,-42,-57,-58,-81,-30v-15,17,-23,43,-35,62v-5,9,-13,14,-24,14v-60,-4,-60,-71,-59,-136xm205,89v0,-19,13,-33,31,-33v11,0,17,6,17,17v-1,18,-10,39,-27,41v-13,-2,-21,-11,-21,-25","w":431},"t":{"d":"107,-124v0,78,19,136,98,134v61,-2,94,-43,124,-78r-17,-12v-16,15,-36,36,-65,36v-37,0,-48,-26,-49,-60r0,-340r109,0r0,-36r-109,0r0,-150r-52,-3v-6,47,-18,106,-41,138v-16,22,-41,14,-71,15r0,36r73,0r0,320","w":349},"u":{"d":"402,-60v0,20,-8,62,12,66v45,-11,111,-33,152,-48r0,-16v-14,3,-28,4,-44,4v-27,0,-28,-28,-28,-54r0,-372r-160,0r0,18v53,-3,68,21,68,74r0,152r-192,0r0,-244r-160,0r0,18v53,-3,68,21,68,74r-1,227v0,100,31,168,134,167v60,-1,117,-35,151,-66xm294,-54v-87,3,-87,-80,-84,-166r192,0r0,122v-24,25,-62,42,-108,44","w":616},"v":{"d":"123,-154v1,105,48,164,155,164v89,0,143,-51,178,-108v48,-77,72,-218,36,-322v-11,-33,-33,-64,-75,-66v-46,-2,-65,57,-33,84v37,32,85,54,83,124v-2,91,-40,176,-95,220v-21,17,-45,26,-72,26v-66,0,-86,-50,-86,-114r0,-314v0,-10,0,-21,-12,-20r-152,0r0,18v23,3,52,-8,60,12v8,20,13,52,13,78r0,218","w":559},"w":{"d":"688,-64v0,21,-8,65,12,70v45,-11,111,-33,152,-48r0,-16v-14,3,-28,4,-44,4v-27,0,-28,-28,-28,-54r0,-280v0,-37,3,-62,31,-70v9,-3,20,-4,35,-4r0,-18r-158,-1r0,383v-26,23,-64,42,-110,44v-62,2,-82,-41,-82,-98r0,-326r-92,0r0,380v-26,23,-64,42,-110,44v-62,2,-82,-41,-82,-98r0,-236v0,-37,3,-62,31,-70v9,-3,20,-4,35,-4r0,-18r-228,0r0,18v38,0,65,6,68,38v8,83,1,181,2,269v1,95,35,161,131,161v74,0,127,-45,169,-82v17,52,55,82,118,82v62,0,116,-37,150,-70","w":902},"x":{"d":"52,-314v23,-45,30,-96,100,-90v102,8,114,125,138,214r-231,368r75,41r186,-295r10,45v19,79,41,165,98,207v27,20,69,18,94,-4v39,-35,57,-92,74,-148r-17,-6v-18,47,-30,93,-100,90v-51,-2,-77,-50,-95,-89v-18,-38,-30,-95,-39,-135r229,-364r-73,-40r-184,288v-20,-85,-42,-171,-93,-225v-29,-31,-80,-39,-114,-11v-39,32,-61,92,-76,146","w":638},"y":{"d":"312,190v92,3,126,-83,98,-168v-14,-42,-32,-81,-52,-114r143,-326v11,-27,27,-37,56,-44r0,-18r-157,0r0,18v26,0,51,2,50,29v-25,103,-75,199,-115,289v-40,-74,-83,-174,-115,-258v-6,-16,-8,-25,-8,-30v1,-27,31,-30,59,-30r0,-18r-221,0r0,18v48,3,62,35,77,70r146,334v-27,37,-64,84,-67,143v-3,68,39,103,106,105xm301,154v-57,0,-70,-57,-51,-103v12,-28,31,-53,47,-75v17,36,42,73,46,121r-1,0v-1,35,-5,57,-41,57","w":607},"z":{"d":"310,0v100,2,243,15,244,-90v1,-49,-39,-83,-87,-81v-95,3,-137,75,-178,135r-119,0r300,-426r0,-18r-382,0r0,124r18,0v3,-54,16,-88,76,-88r170,0r-302,426r0,18r218,0r-84,164r24,16xm423,-132v38,-17,104,-11,101,38v-5,78,-115,54,-194,58v25,-37,50,-77,93,-96","w":604},"{":{"d":"114,42v-1,50,34,70,81,71r78,0r0,-45v-34,0,-59,-1,-67,-26v-3,-8,-4,-18,-4,-32r0,-290v1,-42,-32,-77,-71,-80v40,-3,72,-38,72,-80r0,-290v-2,-49,21,-61,70,-58r0,-45r-79,0v-47,1,-81,21,-81,71r0,330v0,39,-26,70,-63,72v38,2,64,33,64,72r0,330","w":323},"|":{},"}":{"d":"210,-288v0,-39,26,-70,63,-72v-38,-2,-64,-33,-64,-72r0,-330v1,-50,-34,-70,-81,-71r-78,0r0,45v34,0,59,1,67,26v3,8,4,18,4,32r0,290v-1,42,32,77,71,80v-40,3,-72,38,-72,80r0,290v2,49,-21,61,-70,58r0,45r79,0v47,-1,81,-21,81,-71r0,-330","w":323},"~":{},"\u00a0":{"w":244},"\u00a1":{},"\u00a2":{},"\u00a3":{},"\u00a4":{"d":"254,-484v32,-116,97,-210,240,-210v104,0,174,56,214,125v14,25,23,53,27,83r10,-2r0,-150r-10,-1v-4,6,-7,14,-14,17v-8,-1,-17,-7,-25,-18v-41,-51,-103,-90,-205,-88v-140,2,-236,63,-299,145v-23,30,-40,63,-53,99r-89,0r0,76r72,0v-3,25,-4,49,-2,74r-70,0r0,76r83,0v33,118,110,205,220,246v94,35,206,25,285,-24v50,-31,91,-72,123,-124r-8,-7v-54,75,-132,134,-249,134v-155,0,-226,-98,-256,-225r384,0r0,-76r-393,0v-4,-40,7,-77,10,-114r382,0r1,-36r-378,0","w":811},"\u20ac":{"d":"254,-484v32,-116,97,-210,240,-210v104,0,174,56,214,125v14,25,23,53,27,83r10,-2r0,-150r-10,-1v-4,6,-7,14,-14,17v-8,-1,-17,-7,-25,-18v-41,-51,-103,-90,-205,-88v-140,2,-236,63,-299,145v-23,30,-40,63,-53,99r-89,0r0,76r72,0v-3,25,-4,49,-2,74r-70,0r0,76r83,0v33,118,110,205,220,246v94,35,206,25,285,-24v50,-31,91,-72,123,-124r-8,-7v-54,75,-132,134,-249,134v-155,0,-226,-98,-256,-225r384,0r0,-76r-393,0v-4,-40,7,-77,10,-114r382,0r1,-36r-378,0","w":811},"\u00a5":{},"\u00a6":{"d":"50,-705v61,-2,95,16,95,79r0,626r444,0r58,-187r-11,-3v-32,83,-80,150,-189,150r-137,0v-47,-1,-57,-12,-57,-59r0,-622r-203,1r0,15xm568,-484v30,-15,66,-57,35,-98v-51,-67,-231,-66,-281,0v-16,21,-17,51,0,72v43,54,175,62,246,26xm457,-594v12,0,22,10,22,22v0,12,-10,22,-22,22v-12,0,-22,-10,-22,-22v0,-12,10,-22,22,-22xm516,-555v0,-28,-18,-49,-39,-56v36,2,64,10,85,23v29,20,42,38,22,64v-44,56,-201,54,-244,0v-19,-25,-9,-43,18,-62v18,-13,44,-21,76,-24v-20,8,-36,28,-36,55v-1,33,26,59,59,59v33,0,60,-26,59,-59","w":669},"\u00a8":{},"\u00a9":{"d":"714,-196v36,-82,36,-186,0,-268v-53,-118,-156,-211,-319,-211v-162,0,-265,94,-318,211v-36,82,-36,186,0,268v53,118,156,211,319,211v162,0,265,-94,318,-211xm514,-611v103,46,186,141,186,281v0,143,-82,234,-186,281v-73,32,-165,32,-238,0v-104,-47,-186,-138,-186,-281v0,-143,84,-234,188,-281v73,-32,163,-32,236,0xm489,-503v-32,-5,-59,-17,-95,-17v-91,2,-145,54,-172,122v-31,78,-2,174,39,216v44,46,155,73,223,34v23,-13,45,-31,66,-54v-6,-4,-7,-13,-12,-18v-35,29,-64,53,-128,53v-114,0,-158,-105,-128,-215v16,-59,54,-112,126,-112v20,0,59,12,74,18v0,-12,0,-22,7,-27","w":791},"\u00aa":{"d":"551,1r0,16v-14,0,-26,-0,-35,-1v-9,0,-17,1,-23,4v-5,3,-9,8,-12,16v-2,7,-3,19,-3,35r0,408v0,3,-2,6,-6,7r-14,-9r-21,-12v0,0,-14,-8,-21,-11v-6,-3,-10,-4,-13,-4v-5,0,-12,2,-21,6r-30,12v-11,5,-24,9,-38,13v-13,3,-27,5,-42,5v-37,0,-69,-8,-97,-24v-27,-15,-50,-36,-69,-61v-19,-25,-33,-54,-42,-87v-9,-32,-14,-64,-14,-97v0,-28,4,-56,13,-83v9,-27,21,-51,38,-72v17,-21,37,-39,61,-52v24,-13,51,-20,82,-20v28,0,54,6,78,18v24,12,45,28,63,49r2,0v0,-3,1,-8,4,-15v3,-6,6,-12,10,-18v4,-6,9,-11,14,-16v5,-5,9,-7,14,-7r122,0xm387,316r-1,-225v-9,-10,-22,-19,-39,-28v-16,-9,-31,-13,-45,-13v-29,0,-53,8,-74,23v-20,15,-36,33,-49,56v-13,23,-22,47,-28,74v-6,27,-9,52,-9,76v0,20,2,41,7,63v4,21,11,41,21,59v10,17,23,32,40,44v16,11,36,17,60,17v19,0,36,-5,51,-14v15,-9,27,-20,37,-34v9,-14,17,-30,22,-47v5,-17,7,-34,7,-51","w":571},"\u00ab":{"d":"276,-130v41,25,98,-1,98,-49v0,-27,-22,-51,-50,-51v-13,0,-22,8,-35,8v-17,0,-21,-22,-21,-36v-1,-57,47,-94,86,-115r-1,-9v-66,27,-126,69,-126,158v0,43,21,77,49,94xm100,-130v40,25,96,0,96,-48v0,-28,-21,-52,-49,-52v-13,0,-22,8,-35,8v-17,0,-21,-22,-21,-36v-1,-57,47,-94,86,-115r-1,-9v-66,27,-126,69,-126,158v0,43,22,77,50,94","w":424},"\u00ac":{"d":"147,-87v2,60,-39,73,-97,72r0,15r205,0r0,-322r22,-16r311,338r207,0r0,-14v-73,-1,-112,-41,-149,-80r-291,-306v95,-78,159,-193,254,-271v32,-27,53,-33,105,-34r0,-15r-246,0r0,15v26,-1,64,-3,61,25v-3,36,-36,69,-61,98v-63,75,-140,144,-213,210r0,-350r-108,0r0,635xm614,-404v22,-43,-25,-76,-69,-75v1,-3,22,-16,16,-22r-27,-15r-27,-13r-4,4v7,7,19,10,14,22v-25,32,-56,57,-84,86v-14,15,-21,19,-37,2r-5,5r42,43r103,-103v24,-1,55,19,51,42v-2,8,-7,17,-14,24r-87,87r24,25r102,-102v24,1,55,18,51,42v-2,8,-7,17,-14,24r-63,64v-15,14,-21,17,-38,2r-4,5r61,61r5,-5v-16,-17,-15,-22,1,-39r62,-62v14,-15,24,-26,24,-47v0,-35,-43,-55,-83,-55","w":845},"\u00ad":{"d":"295,-267r0,-82r-245,0r0,82r245,0","w":345},"\u00ae":{"d":"714,-191v36,-83,37,-186,0,-268v-53,-118,-156,-211,-319,-211v-163,0,-265,93,-318,211v-36,82,-36,187,0,269v53,118,156,210,319,210v162,0,266,-93,318,-211xm514,-606v103,46,186,140,186,281v0,143,-82,234,-186,281v-73,32,-165,32,-238,0v-104,-47,-186,-137,-186,-280v0,-143,82,-235,186,-282v73,-32,165,-32,238,0xm235,-513v28,-1,45,-1,45,30r0,154r64,-1r0,2r26,0r133,177r94,0r0,-18v-18,0,-27,-3,-36,-14r-120,-154v54,-2,105,-44,102,-101v-6,-127,-182,-86,-308,-93r0,18xm406,-506v45,3,71,27,69,75v-3,69,-65,78,-132,80r0,-139v-1,-11,9,-21,21,-20v15,1,29,3,42,4","w":791},"\u00af":{},"\u00b0":{},"\u00b2":{"d":"487,122r-9,3v-13,-23,-30,-38,-51,-45v-20,-7,-42,-11,-67,-11r-204,0v26,13,50,28,72,46v21,18,40,39,56,62v15,23,28,49,37,77v9,28,13,59,13,92v0,25,-7,49,-21,70v-14,21,-32,40,-53,55v-21,15,-45,26,-71,35v-26,8,-51,12,-75,12v0,1,-0,-3,-1,-11v0,-7,0,-16,0,-25r0,-26v0,-7,-0,-11,-1,-11v18,-1,35,-4,52,-10v17,-6,32,-14,45,-25v13,-10,23,-22,31,-37v8,-14,12,-30,12,-47v0,-31,-6,-60,-19,-88v-12,-27,-28,-53,-48,-76v-19,-23,-41,-44,-65,-63v-24,-19,-47,-34,-70,-46r0,-53r389,0","w":537},"\u00b3":{"d":"379,43v0,19,-3,39,-9,58v-5,19,-13,36,-24,52v-11,16,-24,30,-39,41v-15,11,-33,20,-53,25v13,7,26,16,38,27v12,11,23,23,32,37v9,13,17,28,23,43v5,15,8,30,8,45v0,22,-6,42,-18,59v-12,17,-27,32,-46,44v-18,12,-38,21,-60,28v-22,6,-43,9,-64,9r0,-18v0,-2,-0,-4,-1,-5v-1,-1,-1,-4,-2,-9v-1,-5,-2,-15,-4,-32v16,0,31,-3,45,-9v14,-6,26,-14,37,-25v10,-10,18,-22,24,-36v6,-13,9,-28,9,-44v0,-22,-5,-42,-14,-61v-9,-18,-20,-34,-35,-48v-15,-13,-32,-24,-51,-33v-19,-9,-38,-15,-58,-19r0,-7v27,0,52,-4,75,-12v23,-7,42,-19,59,-34v16,-15,29,-33,38,-55v9,-21,14,-46,14,-74v0,-18,-3,-35,-9,-52v-5,-17,-14,-32,-25,-45v-11,-13,-24,-23,-39,-31v-15,-7,-32,-11,-51,-11v-17,0,-32,3,-45,8v-12,5,-23,11,-34,18v-10,6,-20,12,-30,17v-10,5,-22,8,-35,8v-7,0,-15,-3,-23,-8v-8,-5,-12,-12,-12,-21v0,-13,4,-23,13,-32v8,-9,18,-16,30,-21v11,-5,24,-8,37,-10v13,-2,24,-3,34,-3v33,0,65,6,97,18v31,11,60,27,85,48v25,21,45,46,60,75v15,29,23,60,23,95","w":479},"\u00b5":{},"\u00b6":{},"\u00b7":{},"\u2219":{},"\u00b8":{},"\u00b9":{"d":"340,0r0,14v-11,0,-23,1,-35,2v-12,1,-23,3,-33,8v-10,4,-18,10,-25,19v-6,9,-9,20,-9,34r0,422r23,0v14,0,27,-0,38,-1v11,0,14,-0,8,-1v-6,0,-29,0,-68,0r-188,0r0,-15v11,0,22,-1,34,-2v12,-1,23,-3,33,-7v10,-4,18,-10,25,-19v6,-8,9,-19,9,-34r0,-343v0,-14,-3,-25,-10,-34v-7,-9,-15,-15,-25,-20v-10,-4,-21,-7,-33,-8v-12,-1,-23,-1,-34,-1r0,-14r290,0","w":390},"\u00ba":{"d":"543,240v0,35,-6,67,-19,97v-13,30,-30,56,-52,78v-22,22,-48,39,-79,52v-30,13,-62,19,-97,19v-35,0,-68,-6,-98,-19v-30,-13,-56,-30,-78,-52v-22,-22,-39,-48,-52,-78v-12,-30,-18,-62,-18,-97v0,-35,6,-68,19,-98v13,-30,30,-56,52,-78v22,-22,48,-39,78,-52v30,-12,63,-18,98,-18v35,0,67,6,97,19v30,12,56,29,78,51v22,22,39,48,52,78v13,30,19,63,19,98xm427,240r-1,0v0,-25,-2,-51,-5,-78v-3,-27,-9,-51,-18,-73v-9,-22,-23,-40,-40,-54v-17,-14,-39,-21,-67,-21v-28,0,-51,7,-68,21v-17,14,-30,32,-39,54v-9,22,-16,46,-19,73v-3,27,-4,53,-4,78v0,25,2,50,5,77v3,27,9,51,19,73v9,22,23,40,40,55v17,14,39,21,67,21v28,0,51,-7,68,-22v17,-14,30,-32,39,-54v9,-22,16,-46,19,-73v3,-27,4,-52,4,-77xm355,250r-1,0v0,16,-6,30,-17,41v-11,11,-25,17,-41,17v-16,0,-30,-6,-41,-17v-11,-11,-17,-25,-17,-41v0,-16,6,-30,18,-41v11,-11,25,-17,41,-17v16,0,30,6,41,17v11,11,17,25,17,41","w":593},"\u00bb":{"d":"247,-124v65,-28,127,-69,127,-158v0,-56,-30,-101,-85,-104v-34,-2,-62,24,-62,58v0,27,22,52,49,52v14,0,23,-9,35,-9v18,0,20,23,21,37v-2,64,-47,87,-86,115xm70,-124v65,-28,127,-69,127,-158v0,-56,-30,-101,-85,-104v-34,-2,-62,24,-62,58v0,27,22,52,49,52v14,0,23,-9,35,-9v18,0,20,23,21,37v-1,65,-48,87,-86,115","w":424},"\u00bf":{},"\u00c1":{},"\u00c2":{"d":"724,0r-306,730r-7,-1r-277,-635r-14,-30v-5,-9,-10,-18,-16,-25v-6,-7,-13,-13,-22,-18v-9,-4,-19,-6,-32,-6r0,-15r199,0r0,14r-23,0v-9,0,-17,1,-25,4v-8,2,-15,6,-21,11v-5,5,-8,13,-8,22v0,5,2,12,5,23v3,11,8,23,13,36r17,42r17,39r14,31v4,9,6,14,7,15r264,0r49,-119r47,-118r119,0xm495,274r-234,0r119,276","w":774},"\u00c3":{"d":"724,0r-306,730r-7,-1r-277,-635r-14,-30v-5,-9,-10,-18,-16,-25v-6,-7,-13,-13,-22,-18v-9,-4,-19,-6,-32,-6r0,-15r199,0r0,14r-23,0v-9,0,-17,1,-25,4v-8,2,-15,6,-21,11v-5,5,-8,13,-8,22v0,5,2,12,5,23v3,11,8,23,13,36r17,42r17,39r14,31v4,9,6,14,7,15r264,0r49,-119r47,-118r119,0xm495,274r-234,0r119,276","w":774},"\u00c4":{"d":"589,-673v30,0,57,-26,57,-56v0,-30,-27,-56,-57,-56v-30,0,-58,26,-58,57v0,31,28,55,58,55xm192,-671v31,0,59,-25,59,-56v0,-32,-27,-57,-58,-57v-30,0,-58,26,-58,56v0,30,27,57,57,57xm233,-11v-38,1,-75,-2,-77,-37v15,-67,48,-127,73,-186r264,0r49,118r47,119r119,0r-306,-730r-7,1r-277,635v-18,36,-30,79,-84,79r0,15r199,0r0,-14xm479,-271r-234,0r119,-276","w":739},"\u00c5":{"d":"724,0r-306,730r-7,-1r-277,-635r-14,-30v-5,-9,-10,-18,-16,-25v-6,-7,-13,-13,-22,-18v-9,-4,-19,-6,-32,-6r0,-15r199,0r0,14r-23,0v-9,0,-17,1,-25,4v-8,2,-15,6,-21,11v-5,5,-8,13,-8,22v0,5,2,12,5,23v3,11,8,23,13,36r17,42r17,39r14,31v4,9,6,14,7,15r264,0r49,-119r47,-118r119,0xm495,274r-234,0r119,276","w":774},"\u00c7":{"d":"692,160r-8,7v-30,-42,-66,-75,-108,-99v-42,-23,-89,-35,-141,-35v-47,0,-87,9,-121,28v-33,18,-61,42,-82,73v-21,30,-37,65,-48,104v-10,39,-15,79,-15,121v0,40,5,80,14,120v9,39,24,75,45,107v21,32,47,58,80,78v32,20,71,30,117,30v30,0,59,-5,86,-16v27,-10,52,-24,74,-43v21,-19,39,-41,54,-66v14,-25,23,-53,27,-83r10,2r0,150r-10,1r-8,-13r-6,-4v-8,1,-16,7,-25,18v-8,11,-20,24,-36,37v-15,13,-36,24,-63,35v-27,11,-62,16,-106,16v-52,0,-101,-9,-146,-28v-45,-19,-84,-44,-118,-77v-33,-32,-60,-70,-79,-115v-19,-45,-29,-93,-29,-145v0,-50,9,-98,26,-143v17,-45,42,-84,73,-118v31,-34,69,-61,112,-81v43,-20,90,-30,141,-30v61,0,117,15,167,46v50,30,91,71,123,123","w":742},"\u00ca":{"d":"659,173r-12,4v-11,-27,-23,-50,-34,-68v-11,-17,-24,-31,-39,-42v-15,-10,-32,-17,-53,-21v-20,-4,-45,-6,-76,-6v-28,0,-56,-0,-83,-1v-27,0,-54,0,-82,0v-8,0,-15,3,-20,10v-5,7,-7,14,-7,21r0,294r162,0v39,0,67,-7,85,-22v16,-13,24,-37,24,-70v0,-5,-0,-10,-1,-15r14,0r0,249r-13,0v0,-21,-3,-39,-8,-53v-5,-13,-12,-24,-22,-32v-10,-8,-22,-14,-37,-17v-15,-3,-32,-4,-51,-4r-153,0r0,280r188,0v19,0,38,-2,55,-6v17,-3,33,-10,46,-19v13,-9,23,-21,31,-36v7,-15,11,-33,11,-55r10,0r0,156r-544,0r0,-15v16,0,30,-1,42,-3v12,-1,22,-5,30,-10v8,-5,14,-13,18,-24v4,-10,6,-24,6,-42r0,-626r457,0","w":709},"\u00cb":{"d":"659,173r-12,4v-11,-27,-23,-50,-34,-68v-11,-17,-24,-31,-39,-42v-15,-10,-32,-17,-53,-21v-20,-4,-45,-6,-76,-6v-28,0,-56,-0,-83,-1v-27,0,-54,0,-82,0v-8,0,-15,3,-20,10v-5,7,-7,14,-7,21r0,294r162,0v39,0,67,-7,85,-22v16,-13,24,-37,24,-70v0,-5,-0,-10,-1,-15r14,0r0,249r-13,0v0,-21,-3,-39,-8,-53v-5,-13,-12,-24,-22,-32v-10,-8,-22,-14,-37,-17v-15,-3,-32,-4,-51,-4r-153,0r0,280r188,0v19,0,38,-2,55,-6v17,-3,33,-10,46,-19v13,-9,23,-21,31,-36v7,-15,11,-33,11,-55r10,0r0,156r-544,0r0,-15v16,0,30,-1,42,-3v12,-1,22,-5,30,-10v8,-5,14,-13,18,-24v4,-10,6,-24,6,-42r0,-626r457,0","w":709},"\u00ce":{"d":"360,705r0,15r-310,0r0,-15v16,0,30,-1,43,-2v12,-1,22,-5,31,-10v9,-5,15,-13,20,-24v4,-11,6,-25,6,-43r0,-626r108,0r0,626v0,18,2,32,7,43v5,11,12,19,21,24v9,5,19,9,32,10v13,1,27,2,42,2","w":410},"\u00cf":{"d":"360,705r0,15r-310,0r0,-15v16,0,30,-1,43,-2v12,-1,22,-5,31,-10v9,-5,15,-13,20,-24v4,-11,6,-25,6,-43r0,-626r108,0r0,626v0,18,2,32,7,43v5,11,12,19,21,24v9,5,19,9,32,10v13,1,27,2,42,2","w":410},"\u00d0":{"d":"658,-490v28,-13,60,-51,31,-88v-47,-60,-207,-59,-253,0v-15,19,-15,45,0,64v40,48,157,56,222,24xm557,-594v12,0,22,10,22,22v0,12,-10,22,-22,22v-12,0,-22,-10,-22,-22v0,-12,10,-22,22,-22xm616,-555v0,-28,-18,-49,-39,-56v36,2,64,10,85,23v29,20,42,38,22,64v-44,56,-201,54,-244,0v-19,-25,-9,-43,18,-62v18,-13,44,-21,76,-24v-20,8,-36,28,-36,55v-1,33,26,59,59,59v33,0,60,-26,59,-59xm258,-490v28,-13,60,-51,31,-88v-47,-60,-207,-59,-253,0v-15,19,-15,45,0,64v40,48,157,56,222,24xm157,-594v12,0,22,10,22,22v0,12,-10,22,-22,22v-12,0,-22,-10,-22,-22v0,-12,10,-22,22,-22xm216,-555v0,-28,-18,-49,-39,-56v36,2,64,10,85,23v29,20,42,38,22,64v-44,56,-201,54,-244,0v-19,-25,-9,-43,18,-62v18,-13,44,-21,76,-24v-20,8,-36,28,-36,55v-1,33,26,59,59,59v33,0,60,-26,59,-59","w":737},"\u00d1":{"d":"796,706r0,14r-148,1r1,-529r-436,528r-198,0r0,-12r7,0v25,0,48,-7,67,-20v21,-15,40,-33,55,-55r0,-633r40,0r0,590r497,-605r9,0r0,641v0,17,3,31,8,42v5,11,13,19,23,25v9,6,20,10,33,11v9,1,19,2,29,2r13,0","w":817},"\u00d4":{"d":"729,356v0,49,-8,96,-24,141v-15,45,-38,84,-67,118v-29,33,-64,60,-106,80v-41,20,-88,30,-140,30v-53,0,-100,-10,-142,-29v-42,-19,-78,-45,-108,-78v-29,-33,-52,-71,-68,-116v-16,-44,-24,-91,-24,-142v0,-49,8,-95,24,-139v15,-44,38,-83,67,-117v29,-33,64,-60,105,-80v41,-20,87,-30,138,-30v51,0,98,10,141,29v42,19,78,44,109,77v30,33,53,71,70,115v17,44,25,91,25,141xm608,360r-1,0v0,-34,-3,-70,-10,-109v-7,-39,-18,-74,-35,-107v-17,-33,-39,-60,-68,-82v-28,-21,-63,-32,-106,-32v-42,0,-77,11,-105,33v-28,21,-50,49,-67,82v-17,33,-29,68,-36,107v-7,39,-10,75,-10,108v0,34,4,70,11,109v7,39,18,74,35,107v17,32,39,59,68,81v28,21,63,32,106,32v42,0,77,-11,105,-33v28,-21,50,-48,67,-81v17,-33,29,-68,36,-107v7,-39,10,-75,10,-108","w":779},"\u00d5":{"d":"729,356v0,49,-8,96,-24,141v-15,45,-38,84,-67,118v-29,33,-64,60,-106,80v-41,20,-88,30,-140,30v-53,0,-100,-10,-142,-29v-42,-19,-78,-45,-108,-78v-29,-33,-52,-71,-68,-116v-16,-44,-24,-91,-24,-142v0,-49,8,-95,24,-139v15,-44,38,-83,67,-117v29,-33,64,-60,105,-80v41,-20,87,-30,138,-30v51,0,98,10,141,29v42,19,78,44,109,77v30,33,53,71,70,115v17,44,25,91,25,141xm608,360r-1,0v0,-34,-3,-70,-10,-109v-7,-39,-18,-74,-35,-107v-17,-33,-39,-60,-68,-82v-28,-21,-63,-32,-106,-32v-42,0,-77,11,-105,33v-28,21,-50,49,-67,82v-17,33,-29,68,-36,107v-7,39,-10,75,-10,108v0,34,4,70,11,109v7,39,18,74,35,107v17,32,39,59,68,81v28,21,63,32,106,32v42,0,77,-11,105,-33v28,-21,50,-48,67,-81v17,-33,29,-68,36,-107v7,-39,10,-75,10,-108","w":779},"\u00d6":{"d":"587,-706v30,0,57,-26,57,-56v0,-30,-28,-56,-58,-56v-30,0,-58,26,-58,57v0,31,29,55,59,55xm132,-761v0,47,63,75,100,41v36,-33,7,-97,-42,-97v-30,0,-58,26,-58,56xm704,-215v33,-86,34,-194,2,-282v-47,-129,-145,-228,-314,-228v-170,0,-270,96,-318,223v-32,86,-32,194,0,281v31,88,91,157,172,197v80,39,196,39,278,2v84,-38,147,-105,180,-193xm495,-656v149,109,145,488,-1,594v-55,40,-157,42,-211,0v-96,-75,-132,-244,-103,-407v15,-79,50,-145,104,-187v54,-42,156,-40,211,0","w":779},"\u00d8":{},"\u00db":{},"\u00dc":{"d":"597,-741v30,0,57,-26,57,-56v0,-30,-28,-56,-58,-56v-30,0,-58,26,-58,57v0,31,29,55,59,55xm142,-796v0,47,63,75,100,41v36,-33,7,-97,-42,-97v-30,0,-58,26,-58,56xm413,10v178,2,273,-95,273,-273r0,-457r-47,0r0,436v0,152,-58,248,-212,248v-133,0,-193,-74,-194,-204r0,-387v7,-41,13,-69,51,-75v11,-2,24,-3,41,-3r0,-15r-294,0r0,15v62,-2,95,17,95,79r0,387v3,172,115,247,287,249","w":755},"\u00df":{"d":"182,-70v3,84,117,95,186,63v69,-33,117,-97,119,-193v3,-120,-83,-191,-191,-204r0,-2v58,-17,109,-49,136,-98v20,-37,16,-95,-4,-129v-32,-58,-98,-90,-186,-91v-132,-1,-191,71,-192,201r0,721r93,0r0,-736v1,-80,14,-156,95,-156v82,0,103,69,103,150v0,49,-14,91,-53,108r-78,36v122,17,191,128,170,279v-6,45,-21,101,-70,101v-53,0,-9,-98,-78,-98v-28,0,-51,19,-50,48","w":537},"\u00e2":{"d":"551,1r0,16v-14,0,-26,-0,-35,-1v-9,0,-17,1,-23,4v-5,3,-9,8,-12,16v-2,7,-3,19,-3,35r0,408v0,3,-2,6,-6,7r-14,-9r-21,-12v0,0,-14,-8,-21,-11v-6,-3,-10,-4,-13,-4v-5,0,-12,2,-21,6r-30,12v-11,5,-24,9,-38,13v-13,3,-27,5,-42,5v-37,0,-69,-8,-97,-24v-27,-15,-50,-36,-69,-61v-19,-25,-33,-54,-42,-87v-9,-32,-14,-64,-14,-97v0,-28,4,-56,13,-83v9,-27,21,-51,38,-72v17,-21,37,-39,61,-52v24,-13,51,-20,82,-20v28,0,54,6,78,18v24,12,45,28,63,49r2,0v0,-3,1,-8,4,-15v3,-6,6,-12,10,-18v4,-6,9,-11,14,-16v5,-5,9,-7,14,-7r122,0xm387,316r-1,-225v-9,-10,-22,-19,-39,-28v-16,-9,-31,-13,-45,-13v-29,0,-53,8,-74,23v-20,15,-36,33,-49,56v-13,23,-22,47,-28,74v-6,27,-9,52,-9,76v0,20,2,41,7,63v4,21,11,41,21,59v10,17,23,32,40,44v16,11,36,17,60,17v19,0,36,-5,51,-14v15,-9,27,-20,37,-34v9,-14,17,-30,22,-47v5,-17,7,-34,7,-51","w":571},"\u00e3":{"d":"551,1r0,16v-14,0,-26,-0,-35,-1v-9,0,-17,1,-23,4v-5,3,-9,8,-12,16v-2,7,-3,19,-3,35r0,408v0,3,-2,6,-6,7r-14,-9r-21,-12v0,0,-14,-8,-21,-11v-6,-3,-10,-4,-13,-4v-5,0,-12,2,-21,6r-30,12v-11,5,-24,9,-38,13v-13,3,-27,5,-42,5v-37,0,-69,-8,-97,-24v-27,-15,-50,-36,-69,-61v-19,-25,-33,-54,-42,-87v-9,-32,-14,-64,-14,-97v0,-28,4,-56,13,-83v9,-27,21,-51,38,-72v17,-21,37,-39,61,-52v24,-13,51,-20,82,-20v28,0,54,6,78,18v24,12,45,28,63,49r2,0v0,-3,1,-8,4,-15v3,-6,6,-12,10,-18v4,-6,9,-11,14,-16v5,-5,9,-7,14,-7r122,0xm387,316r-1,-225v-9,-10,-22,-19,-39,-28v-16,-9,-31,-13,-45,-13v-29,0,-53,8,-74,23v-20,15,-36,33,-49,56v-13,23,-22,47,-28,74v-6,27,-9,52,-9,76v0,20,2,41,7,63v4,21,11,41,21,59v10,17,23,32,40,44v16,11,36,17,60,17v19,0,36,-5,51,-14v15,-9,27,-20,37,-34v9,-14,17,-30,22,-47v5,-17,7,-34,7,-51","w":571},"\u00e4":{"d":"538,-68v-95,-1,-133,-63,-134,-157r0,-65r289,0v-6,-115,-60,-196,-179,-196v-59,0,-93,17,-124,52v-43,-33,-113,-50,-187,-52v2,5,-2,10,-3,24v97,1,110,60,111,164v-95,31,-202,52,-248,132v-9,16,-13,34,-13,55v3,74,46,121,121,121v75,0,134,-37,178,-74v38,57,104,71,194,71v40,0,84,-13,84,-40v0,-9,-6,-16,-19,-23v-14,-8,-37,-12,-70,-12xm404,-320v4,-70,22,-136,96,-136v75,0,93,62,94,136r-190,0xm313,-265v3,56,6,122,20,167r-1,0v-20,26,-58,54,-100,54v-55,1,-92,-39,-90,-94v4,-90,94,-109,171,-127","w":743},"\u00e5":{"d":"551,1r0,16v-14,0,-26,-0,-35,-1v-9,0,-17,1,-23,4v-5,3,-9,8,-12,16v-2,7,-3,19,-3,35r0,408v0,3,-2,6,-6,7r-14,-9r-21,-12v0,0,-14,-8,-21,-11v-6,-3,-10,-4,-13,-4v-5,0,-12,2,-21,6r-30,12v-11,5,-24,9,-38,13v-13,3,-27,5,-42,5v-37,0,-69,-8,-97,-24v-27,-15,-50,-36,-69,-61v-19,-25,-33,-54,-42,-87v-9,-32,-14,-64,-14,-97v0,-28,4,-56,13,-83v9,-27,21,-51,38,-72v17,-21,37,-39,61,-52v24,-13,51,-20,82,-20v28,0,54,6,78,18v24,12,45,28,63,49r2,0v0,-3,1,-8,4,-15v3,-6,6,-12,10,-18v4,-6,9,-11,14,-16v5,-5,9,-7,14,-7r122,0xm387,316r-1,-225v-9,-10,-22,-19,-39,-28v-16,-9,-31,-13,-45,-13v-29,0,-53,8,-74,23v-20,15,-36,33,-49,56v-13,23,-22,47,-28,74v-6,27,-9,52,-9,76v0,20,2,41,7,63v4,21,11,41,21,59v10,17,23,32,40,44v16,11,36,17,60,17v19,0,36,-5,51,-14v15,-9,27,-20,37,-34v9,-14,17,-30,22,-47v5,-17,7,-34,7,-51","w":571},"\u00e6":{},"\u00e7":{},"\u00ea":{"d":"485,127v0,2,-0,4,-1,6v-1,2,-3,3,-6,3v-2,0,-8,-4,-19,-12v-10,-8,-24,-17,-41,-27v-17,-10,-37,-19,-60,-27v-23,-8,-48,-12,-77,-12v-16,0,-32,2,-49,6v-16,3,-31,9,-44,18v-13,8,-24,19,-33,32v-9,13,-13,28,-13,47v0,15,3,27,10,38v6,10,14,19,24,26v10,7,21,12,34,15v13,3,25,5,38,5v5,0,11,-1,16,-2v5,-1,11,-2,16,-2v4,0,8,1,12,4v3,2,5,5,5,10v0,5,-3,9,-8,11v-5,2,-9,3,-14,3v-31,0,-57,6,-76,19v-19,12,-29,35,-29,70v0,29,9,54,26,75v17,21,41,31,71,31v16,0,29,-3,39,-10v9,-7,17,-15,23,-25v5,-9,10,-20,14,-31v4,-11,9,-22,14,-32v5,-9,11,-17,18,-24v7,-7,16,-10,29,-10v15,0,28,5,37,16v9,11,14,23,14,38v0,21,-7,38,-21,51v-14,13,-31,23,-51,31v-20,7,-41,13,-63,16v-21,3,-39,4,-54,4v-19,0,-41,-2,-64,-6v-23,-3,-45,-10,-65,-20v-20,-9,-37,-22,-51,-38v-13,-16,-20,-36,-20,-61v0,-15,4,-29,12,-41v7,-11,17,-21,29,-30v11,-8,24,-15,38,-20v14,-5,27,-8,40,-10r0,-2v-38,-4,-70,-17,-96,-40v-26,-22,-39,-53,-39,-93v0,-26,6,-48,19,-65v12,-17,28,-31,47,-42v19,-10,40,-17,63,-22v23,-4,45,-6,66,-6v42,0,83,9,122,26v39,17,72,41,99,74v3,4,7,10,12,17v5,7,7,13,7,18","w":535},"\u00eb":{"d":"485,127v0,2,-0,4,-1,6v-1,2,-3,3,-6,3v-2,0,-8,-4,-19,-12v-10,-8,-24,-17,-41,-27v-17,-10,-37,-19,-60,-27v-23,-8,-48,-12,-77,-12v-16,0,-32,2,-49,6v-16,3,-31,9,-44,18v-13,8,-24,19,-33,32v-9,13,-13,28,-13,47v0,15,3,27,10,38v6,10,14,19,24,26v10,7,21,12,34,15v13,3,25,5,38,5v5,0,11,-1,16,-2v5,-1,11,-2,16,-2v4,0,8,1,12,4v3,2,5,5,5,10v0,5,-3,9,-8,11v-5,2,-9,3,-14,3v-31,0,-57,6,-76,19v-19,12,-29,35,-29,70v0,29,9,54,26,75v17,21,41,31,71,31v16,0,29,-3,39,-10v9,-7,17,-15,23,-25v5,-9,10,-20,14,-31v4,-11,9,-22,14,-32v5,-9,11,-17,18,-24v7,-7,16,-10,29,-10v15,0,28,5,37,16v9,11,14,23,14,38v0,21,-7,38,-21,51v-14,13,-31,23,-51,31v-20,7,-41,13,-63,16v-21,3,-39,4,-54,4v-19,0,-41,-2,-64,-6v-23,-3,-45,-10,-65,-20v-20,-9,-37,-22,-51,-38v-13,-16,-20,-36,-20,-61v0,-15,4,-29,12,-41v7,-11,17,-21,29,-30v11,-8,24,-15,38,-20v14,-5,27,-8,40,-10r0,-2v-38,-4,-70,-17,-96,-40v-26,-22,-39,-53,-39,-93v0,-26,6,-48,19,-65v12,-17,28,-31,47,-42v19,-10,40,-17,63,-22v23,-4,45,-6,66,-6v42,0,83,9,122,26v39,17,72,41,99,74v3,4,7,10,12,17v5,7,7,13,7,18","w":535},"\u00ee":{"d":"304,0r0,17r-81,0r0,443v0,5,-1,9,-2,14v-1,4,-4,6,-10,6r-152,0r0,-18v14,0,26,0,35,1v9,1,17,-0,23,-3v5,-2,9,-7,12,-14v2,-7,3,-17,3,-32r0,-397r-73,0r0,-17r245,0","w":345},"\u00ef":{"d":"304,0r0,17r-81,0r0,443v0,5,-1,9,-2,14v-1,4,-4,6,-10,6r-152,0r0,-18v14,0,26,0,35,1v9,1,17,-0,23,-3v5,-2,9,-7,12,-14v2,-7,3,-17,3,-32r0,-397r-73,0r0,-17r245,0","w":345},"\u00f1":{"d":"498,40r0,288v0,21,-3,42,-8,61v-5,19,-13,35,-24,50v-11,15,-24,26,-41,35v-17,8,-37,12,-60,12v-27,0,-55,-7,-82,-20v-27,-13,-50,-28,-69,-46v0,3,0,9,1,16v1,7,1,15,1,22v-1,7,-2,14,-4,20v-2,5,-5,8,-10,8v-3,0,-11,-2,-26,-7r-49,-15r-49,-17v-15,-5,-25,-8,-28,-9r0,-16v7,1,15,2,22,3v7,1,15,1,22,1v7,0,13,-2,17,-6v3,-3,6,-8,8,-13v1,-5,2,-11,3,-18v-0,-6,0,-12,0,-17r0,-280v0,-14,-1,-26,-2,-35v-1,-9,-4,-17,-9,-23v-5,-5,-11,-9,-20,-12v-9,-3,-20,-4,-35,-4r0,-18r226,0r0,18v-15,0,-26,1,-35,4v-9,2,-16,6,-21,12v-5,6,-8,14,-10,23v-1,9,-2,21,-2,35r0,290v6,7,13,13,22,18v9,5,18,10,28,14v10,4,20,7,30,9v10,2,19,3,28,3v33,0,55,-10,67,-29v11,-19,17,-44,17,-74r0,-345v0,-8,-1,-18,-2,-29v-1,-11,-4,-21,-8,-32v-3,-10,-9,-19,-16,-26v-7,-7,-15,-11,-26,-11v-10,0,-19,4,-27,13v-7,8,-15,17,-23,27v-7,10,-16,19,-25,28v-9,8,-21,12,-34,12v-13,0,-23,-4,-30,-13v-7,-8,-11,-18,-11,-30v0,-13,4,-24,12,-33v7,-9,17,-16,28,-21v11,-5,24,-8,37,-10v13,-2,24,-3,34,-3v26,0,50,5,72,16v22,10,41,24,58,41v17,17,30,38,39,61v9,23,14,47,14,72","w":548},"\u00f4":{"d":"543,240v0,35,-6,67,-19,97v-13,30,-30,56,-52,78v-22,22,-48,39,-79,52v-30,13,-62,19,-97,19v-35,0,-68,-6,-98,-19v-30,-13,-56,-30,-78,-52v-22,-22,-39,-48,-52,-78v-12,-30,-18,-62,-18,-97v0,-35,6,-68,19,-98v13,-30,30,-56,52,-78v22,-22,48,-39,78,-52v30,-12,63,-18,98,-18v35,0,67,6,97,19v30,12,56,29,78,51v22,22,39,48,52,78v13,30,19,63,19,98xm427,240r-1,0v0,-25,-2,-51,-5,-78v-3,-27,-9,-51,-18,-73v-9,-22,-23,-40,-40,-54v-17,-14,-39,-21,-67,-21v-28,0,-51,7,-68,21v-17,14,-30,32,-39,54v-9,22,-16,46,-19,73v-3,27,-4,53,-4,78v0,25,2,50,5,77v3,27,9,51,19,73v9,22,23,40,40,55v17,14,39,21,67,21v28,0,51,-7,68,-22v17,-14,30,-32,39,-54v9,-22,16,-46,19,-73v3,-27,4,-52,4,-77xm355,250r-1,0v0,16,-6,30,-17,41v-11,11,-25,17,-41,17v-16,0,-30,-6,-41,-17v-11,-11,-17,-25,-17,-41v0,-16,6,-30,18,-41v11,-11,25,-17,41,-17v16,0,30,6,41,17v11,11,17,25,17,41","w":593},"\u00f5":{"d":"543,240v0,35,-6,67,-19,97v-13,30,-30,56,-52,78v-22,22,-48,39,-79,52v-30,13,-62,19,-97,19v-35,0,-68,-6,-98,-19v-30,-13,-56,-30,-78,-52v-22,-22,-39,-48,-52,-78v-12,-30,-18,-62,-18,-97v0,-35,6,-68,19,-98v13,-30,30,-56,52,-78v22,-22,48,-39,78,-52v30,-12,63,-18,98,-18v35,0,67,6,97,19v30,12,56,29,78,51v22,22,39,48,52,78v13,30,19,63,19,98xm427,240r-1,0v0,-25,-2,-51,-5,-78v-3,-27,-9,-51,-18,-73v-9,-22,-23,-40,-40,-54v-17,-14,-39,-21,-67,-21v-28,0,-51,7,-68,21v-17,14,-30,32,-39,54v-9,22,-16,46,-19,73v-3,27,-4,53,-4,78v0,25,2,50,5,77v3,27,9,51,19,73v9,22,23,40,40,55v17,14,39,21,67,21v28,0,51,-7,68,-22v17,-14,30,-32,39,-54v9,-22,16,-46,19,-73v3,-27,4,-52,4,-77xm355,250r-1,0v0,16,-6,30,-17,41v-11,11,-25,17,-41,17v-16,0,-30,-6,-41,-17v-11,-11,-17,-25,-17,-41v0,-16,6,-30,18,-41v11,-11,25,-17,41,-17v16,0,30,6,41,17v11,11,17,25,17,41","w":593},"\u00f6":{"d":"767,-150r-7,-7v-14,8,-28,31,-44,45v-24,20,-53,45,-98,44v-112,-3,-133,-109,-135,-222r280,0v-1,-91,-39,-152,-103,-181v-37,-17,-101,-21,-138,-3v-28,13,-49,33,-65,52v-12,15,-10,16,-25,2v-24,-23,-52,-50,-89,-58v-140,-33,-241,41,-277,146v-33,96,-5,215,43,270v48,56,159,97,247,53v34,-16,57,-44,77,-75v13,-11,16,15,25,21v31,44,65,73,133,73v73,0,126,-57,158,-106v11,-19,17,-37,18,-54xm532,-320v4,-70,22,-136,96,-136v70,0,85,65,86,136r-182,0xm400,-238v0,110,-12,217,-123,218v-53,0,-79,-43,-97,-82v-43,-99,-32,-272,34,-331v32,-29,97,-29,128,0v42,39,58,118,58,195","w":817},"\u00f7":{"d":"442,-314v46,59,207,58,253,0v15,-19,15,-45,0,-64v-47,-59,-207,-60,-253,-1r0,-65r108,0r0,-36r-108,0r0,-150v1,-30,11,-58,41,-58v50,0,35,81,88,82v29,1,53,-21,51,-50v-3,-51,-56,-68,-108,-68v-79,0,-128,45,-152,104v-16,39,-11,88,-12,140r-72,0r0,36r72,0r0,500v0,78,19,136,98,134v61,-2,94,-43,124,-78r-16,-12v-16,15,-37,36,-65,36v-37,1,-48,-26,-49,-60r0,-390xm563,-394v12,0,22,10,22,22v0,12,-10,22,-22,22v-12,0,-22,-10,-22,-22v0,-12,10,-22,22,-22xm622,-355v0,-28,-18,-49,-39,-56v36,2,64,10,85,23v29,20,42,38,22,64v-45,57,-212,55,-248,-6r0,-33v17,-25,55,-42,98,-47v-20,8,-36,28,-36,55v-1,33,26,59,59,59v33,0,60,-26,59,-59xm264,-290v28,-13,60,-51,31,-88v-47,-60,-207,-59,-253,0v-15,19,-15,45,0,64v40,48,157,56,222,24xm163,-394v12,0,22,10,22,22v0,12,-10,22,-22,22v-12,0,-22,-10,-22,-22v0,-12,10,-22,22,-22xm222,-355v0,-28,-18,-49,-39,-56v36,2,64,10,85,23v29,20,42,38,22,64v-44,56,-201,54,-244,0v-19,-25,-9,-43,18,-62v18,-13,44,-21,76,-24v-20,8,-36,28,-36,55v-1,33,26,59,59,59v33,0,60,-26,59,-59","w":737},"\u00fb":{"d":"566,42r0,16v-7,-1,-15,-2,-22,-3v-7,-1,-15,-1,-22,-1v-7,0,-13,2,-17,6v-3,3,-6,8,-8,13v-1,5,-2,11,-3,18v0,6,0,12,0,17r0,112r0,16r0,244r-160,0r0,-18v15,0,26,-1,35,-4v9,-2,16,-6,21,-12v5,-6,8,-14,10,-23v1,-9,2,-21,2,-35r0,-152r-192,0r0,244r-160,0r0,-18v15,0,27,-1,36,-4v9,-2,15,-6,20,-12v5,-6,8,-14,10,-23v1,-9,2,-21,2,-35r0,-152r0,-16r0,-52v-1,-2,-1,-4,-1,-7v0,-15,1,-30,3,-44v2,-17,5,-33,10,-48v5,-15,12,-28,22,-39v9,-11,22,-19,39,-26v16,-7,36,-10,60,-10v27,0,55,7,82,20v27,13,50,28,69,46v0,-3,-0,-9,-1,-16v-1,-7,-1,-15,-1,-22v1,-7,2,-14,4,-20v2,-5,5,-8,10,-8v3,0,12,2,27,7r49,15r49,16v15,5,24,9,27,10xm402,98v-6,-7,-13,-13,-22,-18v-9,-5,-18,-10,-28,-14v-10,-4,-20,-7,-30,-9v-10,-2,-19,-3,-28,-3v-17,0,-30,3,-41,8v-11,5,-19,12,-26,21v-6,9,-10,20,-13,33v-3,12,-4,26,-4,41r0,63r192,0r0,-122","w":616},"\u00fc":{"d":"427,-546v31,0,58,-27,58,-58v0,-31,-28,-58,-59,-58v-31,0,-58,27,-58,58v0,31,28,58,59,58xm130,-604v0,49,64,77,100,41v35,-35,8,-99,-42,-99v-31,0,-58,27,-58,58xm236,-40v-110,-82,-74,-334,-11,-440r-175,0r0,18r95,0v-5,32,-28,61,-43,93v-19,42,-41,92,-40,155v3,150,91,224,241,224v114,0,189,-45,223,-126v22,-49,23,-130,4,-184v-15,-46,-36,-87,-56,-123v-9,-15,-13,-28,-13,-39r94,0r0,-18r-175,0v44,85,74,201,52,326v-13,70,-48,132,-130,134v-26,0,-48,-7,-66,-20","w":605},"\u00ff":{"d":"489,-503v65,64,278,61,287,-44v-9,-65,-81,-84,-154,-86v-53,-1,-106,17,-133,43r0,-130r-108,0r0,607v-1,37,0,86,-36,86v-23,0,-29,-28,-39,-43v-12,-19,-26,-42,-58,-42v-28,0,-55,18,-53,48v4,55,59,76,114,76v96,0,145,-61,169,-136v8,-26,11,-53,11,-80r0,-299xm617,-594v12,0,22,10,22,22v0,12,-10,22,-22,22v-12,0,-22,-10,-22,-22v0,-12,10,-22,22,-22xm676,-555v0,-28,-18,-49,-39,-56v36,2,64,10,85,23v29,20,42,38,22,64v-44,56,-201,54,-244,0v-19,-25,-9,-43,18,-62v18,-13,44,-21,76,-24v-20,8,-36,28,-36,55v-1,33,26,59,59,59v33,0,60,-26,59,-59xm288,-484v30,-15,66,-57,35,-98v-51,-67,-231,-66,-281,0v-16,21,-17,51,0,72v43,54,174,62,246,26xm177,-594v12,0,22,10,22,22v0,12,-10,22,-22,22v-12,0,-22,-10,-22,-22v0,-12,10,-22,22,-22xm236,-555v0,-28,-18,-49,-39,-56v36,2,64,10,85,23v29,20,42,38,22,64v-44,56,-201,54,-244,0v-19,-25,-9,-43,18,-62v18,-13,44,-21,76,-24v-20,8,-36,28,-36,55v-1,33,26,59,59,59v33,0,60,-26,59,-59","w":785},"\u0152":{"d":"1438,173r-12,4v-11,-27,-23,-50,-34,-68v-11,-17,-24,-31,-39,-42v-15,-10,-32,-17,-53,-21v-20,-4,-45,-6,-76,-6v-28,0,-56,-0,-83,-1v-27,0,-54,0,-82,0v-8,0,-15,3,-20,10v-5,7,-7,14,-7,21r0,294r162,0v39,0,67,-7,85,-22v16,-13,24,-37,24,-70v0,-5,-0,-10,-1,-15r14,0r0,249r-13,0v0,-21,-3,-39,-8,-53v-5,-13,-12,-24,-22,-32v-10,-8,-22,-14,-37,-17v-15,-3,-32,-4,-51,-4r-153,0r0,280r188,0v19,0,38,-2,55,-6v17,-3,33,-10,46,-19v13,-9,23,-21,31,-36v7,-15,11,-33,11,-55r10,0r0,156r-544,0r0,-15v16,0,30,-1,42,-3v12,-1,22,-5,30,-10v8,-5,14,-13,18,-24v4,-10,6,-24,6,-42r0,-626r457,0xm729,356v0,49,-8,96,-24,141v-15,45,-38,84,-67,118v-29,33,-64,60,-106,80v-41,20,-88,30,-140,30v-53,0,-100,-10,-142,-29v-42,-19,-78,-45,-108,-78v-29,-33,-52,-71,-68,-116v-16,-44,-24,-91,-24,-142v0,-49,8,-95,24,-139v15,-44,38,-83,67,-117v29,-33,64,-60,105,-80v41,-20,87,-30,138,-30v51,0,98,10,141,29v42,19,78,44,109,77v30,33,53,71,70,115v17,44,25,91,25,141xm608,360r-1,0v0,-34,-3,-70,-10,-109v-7,-39,-18,-74,-35,-107v-17,-33,-39,-60,-68,-82v-28,-21,-63,-32,-106,-32v-42,0,-77,11,-105,33v-28,21,-50,49,-67,82v-17,33,-29,68,-36,107v-7,39,-10,75,-10,108v0,34,4,70,11,109v7,39,18,74,35,107v17,32,39,59,68,81v28,21,63,32,106,32v42,0,77,-11,105,-33v28,-21,50,-48,67,-81v17,-33,29,-68,36,-107v7,-39,10,-75,10,-108","w":1488},"\u0153":{},"\u0178":{"d":"658,-490v28,-13,60,-51,31,-88v-47,-60,-207,-59,-253,0v-15,19,-15,45,0,64v40,48,157,56,222,24xm557,-594v12,0,22,10,22,22v0,12,-10,22,-22,22v-12,0,-22,-10,-22,-22v0,-12,10,-22,22,-22xm616,-555v0,-28,-18,-49,-39,-56v36,2,64,10,85,23v29,20,42,38,22,64v-44,56,-201,54,-244,0v-19,-25,-9,-43,18,-62v18,-13,44,-21,76,-24v-20,8,-36,28,-36,55v-1,33,26,59,59,59v33,0,60,-26,59,-59xm258,-490v28,-13,60,-51,31,-88v-47,-60,-207,-59,-253,0v-15,19,-15,45,0,64v40,48,157,56,222,24xm157,-594v12,0,22,10,22,22v0,12,-10,22,-22,22v-12,0,-22,-10,-22,-22v0,-12,10,-22,22,-22xm216,-555v0,-28,-18,-49,-39,-56v36,2,64,10,85,23v29,20,42,38,22,64v-44,56,-201,54,-244,0v-19,-25,-9,-43,18,-62v18,-13,44,-21,76,-24v-20,8,-36,28,-36,55v-1,33,26,59,59,59v33,0,60,-26,59,-59xm160,-166v17,43,41,88,98,88r226,0r-197,-604r52,-15r228,699r-354,0r-63,-164","w":737},"\u02dc":{},"\u2013":{"d":"533,-288r0,-76r-483,0r0,76r483,0","w":583},"\u2014":{"d":"410,-177r0,-93r-360,0r0,93r360,0","w":460},"\u2018":{"d":"136,-466v34,0,61,-23,61,-57v0,-37,-41,-68,-76,-46v-24,8,-30,-17,-30,-35v0,-58,47,-93,87,-114r-2,-9v-55,14,-96,55,-116,105v-27,69,4,153,76,156","w":247},"\u2019":{"d":"71,-466v66,-27,126,-69,126,-158v0,-56,-30,-101,-86,-104v-33,-2,-61,25,-61,59v0,26,23,52,50,52v15,0,22,-9,35,-9v17,0,21,22,21,36v0,58,-47,94,-87,115","w":247},"\u201a":{"d":"319,-624v25,27,75,8,72,-28v-5,-57,-64,-80,-121,-80v-122,0,-183,80,-183,201r0,438v0,45,-25,88,-77,79r0,14r154,0r2,-597v1,-50,14,-99,64,-99v50,0,64,45,89,72","w":301},"\u201c":{"d":"313,-466v33,2,61,-25,61,-59v0,-26,-23,-51,-50,-51v-13,0,-22,8,-35,8v-17,0,-21,-22,-21,-36v0,-58,47,-94,87,-115r-2,-9v-66,27,-126,69,-126,158v0,56,30,101,86,104xm176,-728v-66,27,-126,69,-126,158v0,44,22,76,50,94v40,26,96,-4,96,-48v0,-28,-21,-52,-49,-52v-13,0,-22,8,-35,8v-17,0,-21,-22,-21,-36v0,-58,47,-94,87,-115","w":424},"\u201d":{"d":"248,-466v64,-28,126,-69,126,-158v0,-56,-30,-101,-86,-104v-33,-2,-61,24,-61,58v0,28,22,52,50,52v13,0,22,-8,35,-8v17,0,21,22,21,36v-1,65,-48,87,-87,115xm135,-626v17,0,21,22,21,36v-1,65,-48,87,-87,115r2,9v72,-28,148,-92,119,-194v-10,-35,-34,-66,-79,-68v-33,-1,-61,25,-61,59v0,26,23,51,50,51v13,0,22,-8,35,-8","w":424},"\u201e":{"d":"374,1248v0,12,-2,24,-6,37v-4,12,-10,23,-17,33v-7,10,-16,18,-27,25v-11,6,-23,9,-36,9v-17,0,-31,-5,-43,-16v-12,-11,-18,-25,-18,-42v0,-14,5,-26,14,-37v9,-10,21,-15,36,-15v7,0,13,1,18,4v5,3,11,4,17,4v9,0,14,-4,17,-13v3,-9,4,-16,4,-23v0,-15,-3,-28,-8,-39v-5,-11,-11,-21,-19,-30v-8,-9,-17,-17,-28,-24r-32,-22r2,-9v17,7,33,15,48,25v15,10,29,22,41,35v11,13,20,27,27,44v7,17,10,35,10,54xm197,1248r-1,0v0,12,-2,24,-6,37v-4,12,-10,23,-17,33v-7,10,-16,18,-27,25v-10,6,-22,9,-35,9v-17,0,-31,-6,-43,-17v-12,-11,-18,-25,-18,-42v0,-13,5,-25,15,-36v9,-10,21,-15,35,-15v7,0,13,1,18,4v5,3,11,4,17,4v9,0,14,-4,17,-13v3,-9,4,-16,4,-23v0,-15,-3,-28,-8,-39v-5,-11,-11,-21,-19,-30v-8,-9,-17,-17,-28,-24r-32,-22r2,-9v17,7,33,15,48,25v15,10,29,22,41,35v11,13,20,27,27,44v7,17,10,35,10,54","w":424},"\u2022":{"d":"106,-325v32,0,57,-27,57,-58v0,-30,-26,-58,-56,-58v-30,0,-57,27,-57,57v0,31,25,59,56,59","w":213},"\u2026":{},"\u2039":{"d":"660,-280v28,-13,61,-51,32,-88v-47,-60,-207,-59,-253,0v-15,19,-15,45,0,64v40,48,156,56,221,24xm560,-384v12,0,22,10,22,22v0,12,-10,22,-22,22v-12,0,-22,-10,-22,-22v0,-12,10,-22,22,-22xm619,-345v0,-28,-18,-49,-39,-56v36,2,65,10,86,23v29,20,42,38,22,64v-44,56,-201,54,-244,0v-19,-25,-9,-43,18,-62v18,-13,43,-21,75,-24v-20,8,-36,28,-36,55v-1,33,26,59,59,59v33,0,60,-26,59,-59xm39,-304v48,60,220,60,258,-8r0,188v0,78,19,136,98,134v61,-2,94,-43,124,-78r-17,-12v-16,15,-36,36,-65,36v-37,0,-48,-26,-49,-60r0,-340r109,0r0,-36r-109,0r0,-150r-52,-3v-6,47,-18,106,-41,138v-16,22,-41,14,-71,15r0,36r73,0r0,83v-38,-68,-211,-68,-258,-7v-15,19,-15,45,0,64xm160,-384v12,0,22,10,22,22v0,12,-10,22,-22,22v-12,0,-22,-10,-22,-22v0,-12,10,-22,22,-22xm219,-345v0,-28,-18,-49,-39,-56v36,2,65,10,86,23v29,20,42,38,22,64v-44,56,-201,54,-244,0v-19,-25,-9,-43,18,-62v18,-13,43,-21,75,-24v-20,8,-36,28,-36,55v-1,33,26,59,59,59v33,0,60,-26,59,-59","w":735},"\u203a":{},"\u2122":{"d":"778,-339v0,25,-26,28,-51,28r0,18r160,0r0,-18v-25,0,-49,-3,-50,-28r0,-291v0,-24,24,-26,49,-25r0,-18r-112,0r-126,288r-132,-288r-61,0r0,334v0,25,-26,28,-51,28r0,18r129,0r0,-18v-25,0,-50,-3,-51,-28r0,-261r144,307r18,0r134,-323r0,277xm241,-651v63,0,118,8,114,76r18,-1r-3,-97r-317,0r-3,97r18,1v-5,-68,49,-77,114,-76r0,349v1,26,59,23,59,0r0,-349","w":937}}});
